<?xml version="1.0"?>
<opencv_storage>
<luanvantotnghiep type_id="opencv-haar-classifier">
  <size>
    40 30</size>
  <stages>
    <_>
      <!-- stage 0 -->
      <trees>
        <_>
          <!-- tree 0 -->
          <_>
            <!-- root node -->
            <feature>
              <rects>
                <_>
                  0 4 9 10 -1.</_>
                <_>
                  3 4 3 10 3.</_></rects>
              <tilted>0</tilted></feature>
            <threshold>3.2217729836702347e-02</threshold>
            <left_val>-9.6412718296051025e-01</left_val>
            <right_val>8.9223402738571167e-01</right_val></_></_>
        <_>
          <!-- tree 1 -->
          <_>
            <!-- root node -->
            <feature>
              <rects>
                <_>
                  14 3 12 12 -1.</_>
                <_>
                  18 3 4 12 3.</_></rects>
              <tilted>0</tilted></feature>
            <threshold>4.2079560458660126e-02</threshold>
            <left_val>-9.6591389179229736e-01</left_val>
            <right_val>8.1847661733627319e-01</right_val></_></_></trees>
      <stage_threshold>-1.4565069973468781e-01</stage_threshold>
      <parent>-1</parent>
      <next>-1</next></_>
    <_>
      <!-- stage 1 -->
      <trees>
        <_>
          <!-- tree 0 -->
          <_>
            <!-- root node -->
            <feature>
              <rects>
                <_>
                  4 14 29 3 -1.</_>
                <_>
                  4 15 29 1 3.</_></rects>
              <tilted>0</tilted></feature>
            <threshold>7.3326318524777889e-03</threshold>
            <left_val>-9.0415501594543457e-01</left_val>
            <right_val>9.0311622619628906e-01</right_val></_></_>
        <_>
          <!-- tree 1 -->
          <_>
            <!-- root node -->
            <feature>
              <rects>
                <_>
                  5 9 30 12 -1.</_>
                <_>
                  5 13 30 4 3.</_></rects>
              <tilted>0</tilted></feature>
            <threshold>5.1972389221191406e-02</threshold>
            <left_val>-8.9675378799438477e-01</left_val>
            <right_val>6.9407212734222412e-01</right_val></_></_>
        <_>
          <!-- tree 2 -->
          <_>
            <!-- root node -->
            <feature>
              <rects>
                <_>
                  0 4 9 5 -1.</_>
                <_>
                  3 4 3 5 3.</_></rects>
              <tilted>0</tilted></feature>
            <threshold>1.8555020913481712e-02</threshold>
            <left_val>-9.6105808019638062e-01</left_val>
            <right_val>5.9690791368484497e-01</right_val></_></_></trees>
      <stage_threshold>-1.2040009498596191e+00</stage_threshold>
      <parent>0</parent>
      <next>-1</next></_>
    <_>
      <!-- stage 2 -->
      <trees>
        <_>
          <!-- tree 0 -->
          <_>
            <!-- root node -->
            <feature>
              <rects>
                <_>
                  8 14 21 3 -1.</_>
                <_>
                  8 15 21 1 3.</_></rects>
              <tilted>0</tilted></feature>
            <threshold>7.1358471177518368e-03</threshold>
            <left_val>-8.6749762296676636e-01</left_val>
            <right_val>7.9159027338027954e-01</right_val></_></_>
        <_>
          <!-- tree 1 -->
          <_>
            <!-- root node -->
            <feature>
              <rects>
                <_>
                  18 0 5 4 -1.</_>
                <_>
                  18 2 5 2 2.</_></rects>
              <tilted>0</tilted></feature>
            <threshold>5.5574998259544373e-03</threshold>
            <left_val>-8.1101459264755249e-01</left_val>
            <right_val>7.0206481218338013e-01</right_val></_></_>
        <_>
          <!-- tree 2 -->
          <_>
            <!-- root node -->
            <feature>
              <rects>
                <_>
                  0 28 40 2 -1.</_>
                <_>
                  0 29 40 1 2.</_></rects>
              <tilted>0</tilted></feature>
            <threshold>-9.7392890602350235e-03</threshold>
            <left_val>8.6310642957687378e-01</left_val>
            <right_val>-7.1497339010238647e-01</right_val></_></_>
        <_>
          <!-- tree 3 -->
          <_>
            <!-- root node -->
            <feature>
              <rects>
                <_>
                  30 3 1 6 -1.</_>
                <_>
                  30 5 1 2 3.</_></rects>
              <tilted>0</tilted></feature>
            <threshold>1.6304280143231153e-03</threshold>
            <left_val>-1.6662049293518066e-01</left_val>
            <right_val>5.0986868143081665e-01</right_val></_></_>
        <_>
          <!-- tree 4 -->
          <_>
            <!-- root node -->
            <feature>
              <rects>
                <_>
                  9 3 1 6 -1.</_>
                <_>
                  9 5 1 2 3.</_></rects>
              <tilted>0</tilted></feature>
            <threshold>2.4451999925076962e-03</threshold>
            <left_val>-7.8695112466812134e-01</left_val>
            <right_val>8.4599989652633667e-01</right_val></_></_></trees>
      <stage_threshold>-1.7141059637069702e+00</stage_threshold>
      <parent>1</parent>
      <next>-1</next></_>
    <_>
      <!-- stage 3 -->
      <trees>
        <_>
          <!-- tree 0 -->
          <_>
            <!-- root node -->
            <feature>
              <rects>
                <_>
                  17 8 6 2 -1.</_>
                <_>
                  19 8 2 2 3.</_></rects>
              <tilted>0</tilted></feature>
            <threshold>-2.9021149966865778e-03</threshold>
            <left_val>8.4790647029876709e-01</left_val>
            <right_val>-7.8263980150222778e-01</right_val></_></_>
        <_>
          <!-- tree 1 -->
          <_>
            <!-- root node -->
            <feature>
              <rects>
                <_>
                  22 0 1 4 -1.</_>
                <_>
                  22 2 1 2 2.</_></rects>
              <tilted>0</tilted></feature>
            <threshold>7.8162009594962001e-04</threshold>
            <left_val>-5.9664070606231689e-01</left_val>
            <right_val>6.1746442317962646e-01</right_val></_></_>
        <_>
          <!-- tree 2 -->
          <_>
            <!-- root node -->
            <feature>
              <rects>
                <_>
                  5 12 28 6 -1.</_>
                <_>
                  5 14 28 2 3.</_></rects>
              <tilted>0</tilted></feature>
            <threshold>3.9732180535793304e-02</threshold>
            <left_val>-8.0711489915847778e-01</left_val>
            <right_val>7.8159141540527344e-01</right_val></_></_>
        <_>
          <!-- tree 3 -->
          <_>
            <!-- root node -->
            <feature>
              <rects>
                <_>
                  15 3 12 4 -1.</_>
                <_>
                  19 3 4 4 3.</_></rects>
              <tilted>0</tilted></feature>
            <threshold>3.2971568871289492e-03</threshold>
            <left_val>-9.2544907331466675e-01</left_val>
            <right_val>4.1598019003868103e-01</right_val></_></_>
        <_>
          <!-- tree 4 -->
          <_>
            <!-- root node -->
            <feature>
              <rects>
                <_>
                  3 5 6 3 -1.</_>
                <_>
                  6 5 3 3 2.</_></rects>
              <tilted>0</tilted></feature>
            <threshold>-6.5755289979279041e-03</threshold>
            <left_val>6.7409437894821167e-01</left_val>
            <right_val>-9.5360487699508667e-01</right_val></_></_>
        <_>
          <!-- tree 5 -->
          <_>
            <!-- root node -->
            <feature>
              <rects>
                <_>
                  1 26 39 3 -1.</_>
                <_>
                  1 27 39 1 3.</_></rects>
              <tilted>0</tilted></feature>
            <threshold>9.3444883823394775e-03</threshold>
            <left_val>-8.7462377548217773e-01</left_val>
            <right_val>8.4520381689071655e-01</right_val></_></_>
        <_>
          <!-- tree 6 -->
          <_>
            <!-- root node -->
            <feature>
              <rects>
                <_>
                  2 0 32 30 -1.</_>
                <_>
                  2 10 32 10 3.</_></rects>
              <tilted>0</tilted></feature>
            <threshold>1.1325179785490036e-01</threshold>
            <left_val>-9.9388831853866577e-01</left_val>
            <right_val>6.6162472963333130e-01</right_val></_></_></trees>
      <stage_threshold>-1.3093199729919434e+00</stage_threshold>
      <parent>2</parent>
      <next>-1</next></_>
    <_>
      <!-- stage 4 -->
      <trees>
        <_>
          <!-- tree 0 -->
          <_>
            <!-- root node -->
            <feature>
              <rects>
                <_>
                  14 11 12 3 -1.</_>
                <_>
                  18 11 4 3 3.</_></rects>
              <tilted>0</tilted></feature>
            <threshold>1.0268890298902988e-02</threshold>
            <left_val>-9.7189939022064209e-01</left_val>
            <right_val>8.8717311620712280e-01</right_val></_></_>
        <_>
          <!-- tree 1 -->
          <_>
            <!-- root node -->
            <feature>
              <rects>
                <_>
                  31 1 9 13 -1.</_>
                <_>
                  34 1 3 13 3.</_></rects>
              <tilted>0</tilted></feature>
            <threshold>2.3797329515218735e-02</threshold>
            <left_val>-9.8506188392639160e-01</left_val>
            <right_val>9.0749388933181763e-01</right_val></_></_>
        <_>
          <!-- tree 2 -->
          <_>
            <!-- root node -->
            <feature>
              <rects>
                <_>
                  8 22 3 3 -1.</_>
                <_>
                  9 22 1 3 3.</_></rects>
              <tilted>0</tilted></feature>
            <threshold>6.1400537379086018e-04</threshold>
            <left_val>-9.9832838773727417e-01</left_val>
            <right_val>1.</right_val></_></_>
        <_>
          <!-- tree 3 -->
          <_>
            <!-- root node -->
            <feature>
              <rects>
                <_>
                  38 0 2 1 -1.</_>
                <_>
                  38 0 1 1 2.</_></rects>
              <tilted>0</tilted></feature>
            <threshold>0.</threshold>
            <left_val>0.</left_val>
            <right_val>-1.</right_val></_></_>
        <_>
          <!-- tree 4 -->
          <_>
            <!-- root node -->
            <feature>
              <rects>
                <_>
                  0 0 24 12 -1.</_>
                <_>
                  8 0 8 12 3.</_></rects>
              <tilted>0</tilted></feature>
            <threshold>-8.8738877093419433e-04</threshold>
            <left_val>1.</left_val>
            <right_val>-1.0000040531158447e+00</right_val></_></_>
        <_>
          <!-- tree 5 -->
          <_>
            <!-- root node -->
            <feature>
              <rects>
                <_>
                  22 0 1 6 -1.</_>
                <_>
                  22 3 1 3 2.</_></rects>
              <tilted>0</tilted></feature>
            <threshold>1.3288730406202376e-04</threshold>
            <left_val>-9.7590947151184082e-01</left_val>
            <right_val>4.1780999302864075e-01</right_val></_></_>
        <_>
          <!-- tree 6 -->
          <_>
            <!-- root node -->
            <feature>
              <rects>
                <_>
                  14 6 6 3 -1.</_>
                <_>
                  16 6 2 3 3.</_></rects>
              <tilted>0</tilted></feature>
            <threshold>5.2246390841901302e-03</threshold>
            <left_val>-9.9238169193267822e-01</left_val>
            <right_val>9.3027848005294800e-01</right_val></_></_>
        <_>
          <!-- tree 7 -->
          <_>
            <!-- root node -->
            <feature>
              <rects>
                <_>
                  33 3 6 18 -1.</_>
                <_>
                  33 9 6 6 3.</_></rects>
              <tilted>0</tilted></feature>
            <threshold>5.8316957438364625e-04</threshold>
            <left_val>-1.</left_val>
            <right_val>6.6693717241287231e-01</right_val></_></_>
        <_>
          <!-- tree 8 -->
          <_>
            <!-- root node -->
            <feature>
              <rects>
                <_>
                  0 0 2 1 -1.</_>
                <_>
                  1 0 1 1 2.</_></rects>
              <tilted>0</tilted></feature>
            <threshold>0.</threshold>
            <left_val>0.</left_val>
            <right_val>-1.</right_val></_></_>
        <_>
          <!-- tree 9 -->
          <_>
            <!-- root node -->
            <feature>
              <rects>
                <_>
                  16 12 8 8 -1.</_>
                <_>
                  16 16 8 4 2.</_></rects>
              <tilted>0</tilted></feature>
            <threshold>-2.2517659817822278e-04</threshold>
            <left_val>1.</left_val>
            <right_val>-1.0000050067901611e+00</right_val></_></_>
        <_>
          <!-- tree 10 -->
          <_>
            <!-- root node -->
            <feature>
              <rects>
                <_>
                  2 28 34 2 -1.</_>
                <_>
                  2 29 34 1 2.</_></rects>
              <tilted>0</tilted></feature>
            <threshold>-1.1098460294306278e-02</threshold>
            <left_val>9.7119277715682983e-01</left_val>
            <right_val>-9.8865228891372681e-01</right_val></_></_>
        <_>
          <!-- tree 11 -->
          <_>
            <!-- root node -->
            <feature>
              <rects>
                <_>
                  15 3 12 5 -1.</_>
                <_>
                  19 3 4 5 3.</_></rects>
              <tilted>0</tilted></feature>
            <threshold>8.8381057139486074e-04</threshold>
            <left_val>-9.8695927858352661e-01</left_val>
            <right_val>6.3215988874435425e-01</right_val></_></_>
        <_>
          <!-- tree 12 -->
          <_>
            <!-- root node -->
            <feature>
              <rects>
                <_>
                  8 7 4 2 -1.</_>
                <_>
                  10 7 2 2 2.</_></rects>
              <tilted>0</tilted></feature>
            <threshold>1.5180290210992098e-03</threshold>
            <left_val>-9.9696028232574463e-01</left_val>
            <right_val>8.1689691543579102e-01</right_val></_></_>
        <_>
          <!-- tree 13 -->
          <_>
            <!-- root node -->
            <feature>
              <rects>
                <_>
                  14 9 24 3 -1.</_>
                <_>
                  14 10 24 1 3.</_></rects>
              <tilted>0</tilted></feature>
            <threshold>1.7039539525285363e-03</threshold>
            <left_val>-1.</left_val>
            <right_val>1.</right_val></_></_>
        <_>
          <!-- tree 14 -->
          <_>
            <!-- root node -->
            <feature>
              <rects>
                <_>
                  0 0 2 1 -1.</_>
                <_>
                  1 0 1 1 2.</_></rects>
              <tilted>0</tilted></feature>
            <threshold>0.</threshold>
            <left_val>0.</left_val>
            <right_val>-1.</right_val></_></_>
        <_>
          <!-- tree 15 -->
          <_>
            <!-- root node -->
            <feature>
              <rects>
                <_>
                  13 2 15 7 -1.</_>
                <_>
                  18 2 5 7 3.</_></rects>
              <tilted>0</tilted></feature>
            <threshold>1.0146049782633781e-02</threshold>
            <left_val>-9.8617488145828247e-01</left_val>
            <right_val>9.2871767282485962e-01</right_val></_></_>
        <_>
          <!-- tree 16 -->
          <_>
            <!-- root node -->
            <feature>
              <rects>
                <_>
                  3 2 5 14 -1.</_>
                <_>
                  3 9 5 7 2.</_></rects>
              <tilted>0</tilted></feature>
            <threshold>3.0166830401867628e-03</threshold>
            <left_val>-1.</left_val>
            <right_val>1.0000829696655273e+00</right_val></_></_>
        <_>
          <!-- tree 17 -->
          <_>
            <!-- root node -->
            <feature>
              <rects>
                <_>
                  38 0 2 1 -1.</_>
                <_>
                  38 0 1 1 2.</_></rects>
              <tilted>0</tilted></feature>
            <threshold>0.</threshold>
            <left_val>0.</left_val>
            <right_val>-1.</right_val></_></_>
        <_>
          <!-- tree 18 -->
          <_>
            <!-- root node -->
            <feature>
              <rects>
                <_>
                  3 0 1 6 -1.</_>
                <_>
                  3 3 1 3 2.</_></rects>
              <tilted>0</tilted></feature>
            <threshold>1.0384030174463987e-03</threshold>
            <left_val>-1.</left_val>
            <right_val>1.0001679658889771e+00</right_val></_></_>
        <_>
          <!-- tree 19 -->
          <_>
            <!-- root node -->
            <feature>
              <rects>
                <_>
                  38 0 2 1 -1.</_>
                <_>
                  38 0 1 1 2.</_></rects>
              <tilted>0</tilted></feature>
            <threshold>0.</threshold>
            <left_val>0.</left_val>
            <right_val>-1.</right_val></_></_>
        <_>
          <!-- tree 20 -->
          <_>
            <!-- root node -->
            <feature>
              <rects>
                <_>
                  0 11 17 6 -1.</_>
                <_>
                  0 14 17 3 2.</_></rects>
              <tilted>0</tilted></feature>
            <threshold>4.5344870886765420e-04</threshold>
            <left_val>-1.</left_val>
            <right_val>1.0001709461212158e+00</right_val></_></_>
        <_>
          <!-- tree 21 -->
          <_>
            <!-- root node -->
            <feature>
              <rects>
                <_>
                  38 0 2 1 -1.</_>
                <_>
                  38 0 1 1 2.</_></rects>
              <tilted>0</tilted></feature>
            <threshold>0.</threshold>
            <left_val>0.</left_val>
            <right_val>-1.</right_val></_></_>
        <_>
          <!-- tree 22 -->
          <_>
            <!-- root node -->
            <feature>
              <rects>
                <_>
                  0 0 9 15 -1.</_>
                <_>
                  3 0 3 15 3.</_></rects>
              <tilted>0</tilted></feature>
            <threshold>4.4514119625091553e-02</threshold>
            <left_val>-9.9888652563095093e-01</left_val>
            <right_val>9.9994587898254395e-01</right_val></_></_>
        <_>
          <!-- tree 23 -->
          <_>
            <!-- root node -->
            <feature>
              <rects>
                <_>
                  34 0 6 12 -1.</_>
                <_>
                  36 0 2 12 3.</_></rects>
              <tilted>0</tilted></feature>
            <threshold>2.0964359282515943e-04</threshold>
            <left_val>-1.</left_val>
            <right_val>1.</right_val></_></_>
        <_>
          <!-- tree 24 -->
          <_>
            <!-- root node -->
            <feature>
              <rects>
                <_>
                  0 0 2 1 -1.</_>
                <_>
                  1 0 1 1 2.</_></rects>
              <tilted>0</tilted></feature>
            <threshold>0.</threshold>
            <left_val>0.</left_val>
            <right_val>-1.</right_val></_></_>
        <_>
          <!-- tree 25 -->
          <_>
            <!-- root node -->
            <feature>
              <rects>
                <_>
                  11 6 28 10 -1.</_>
                <_>
                  11 11 28 5 2.</_></rects>
              <tilted>0</tilted></feature>
            <threshold>1.0993110481649637e-03</threshold>
            <left_val>-1.</left_val>
            <right_val>1.</right_val></_></_>
        <_>
          <!-- tree 26 -->
          <_>
            <!-- root node -->
            <feature>
              <rects>
                <_>
                  0 0 2 1 -1.</_>
                <_>
                  1 0 1 1 2.</_></rects>
              <tilted>0</tilted></feature>
            <threshold>0.</threshold>
            <left_val>0.</left_val>
            <right_val>-1.</right_val></_></_>
        <_>
          <!-- tree 27 -->
          <_>
            <!-- root node -->
            <feature>
              <rects>
                <_>
                  18 6 6 10 -1.</_>
                <_>
                  21 6 3 5 2.</_>
                <_>
                  18 11 3 5 2.</_></rects>
              <tilted>0</tilted></feature>
            <threshold>-9.2991838755551726e-05</threshold>
            <left_val>6.5287548303604126e-01</left_val>
            <right_val>-9.9337887763977051e-01</right_val></_></_>
        <_>
          <!-- tree 28 -->
          <_>
            <!-- root node -->
            <feature>
              <rects>
                <_>
                  3 0 5 6 -1.</_>
                <_>
                  3 2 5 2 3.</_></rects>
              <tilted>0</tilted></feature>
            <threshold>1.5450980281457305e-03</threshold>
            <left_val>-1.</left_val>
            <right_val>1.0000319480895996e+00</right_val></_></_>
        <_>
          <!-- tree 29 -->
          <_>
            <!-- root node -->
            <feature>
              <rects>
                <_>
                  38 14 2 3 -1.</_>
                <_>
                  38 14 1 3 2.</_></rects>
              <tilted>0</tilted></feature>
            <threshold>-1.1476230574771762e-03</threshold>
            <left_val>1.</left_val>
            <right_val>-9.9633991718292236e-01</right_val></_></_>
        <_>
          <!-- tree 30 -->
          <_>
            <!-- root node -->
            <feature>
              <rects>
                <_>
                  2 0 6 16 -1.</_>
                <_>
                  4 0 2 16 3.</_></rects>
              <tilted>0</tilted></feature>
            <threshold>9.1279596090316772e-03</threshold>
            <left_val>-1.</left_val>
            <right_val>1.0000840425491333e+00</right_val></_></_>
        <_>
          <!-- tree 31 -->
          <_>
            <!-- root node -->
            <feature>
              <rects>
                <_>
                  10 22 29 3 -1.</_>
                <_>
                  10 23 29 1 3.</_></rects>
              <tilted>0</tilted></feature>
            <threshold>8.7085581617429852e-04</threshold>
            <left_val>-1.</left_val>
            <right_val>1.</right_val></_></_>
        <_>
          <!-- tree 32 -->
          <_>
            <!-- root node -->
            <feature>
              <rects>
                <_>
                  0 0 2 1 -1.</_>
                <_>
                  1 0 1 1 2.</_></rects>
              <tilted>0</tilted></feature>
            <threshold>0.</threshold>
            <left_val>0.</left_val>
            <right_val>-1.</right_val></_></_>
        <_>
          <!-- tree 33 -->
          <_>
            <!-- root node -->
            <feature>
              <rects>
                <_>
                  38 0 2 3 -1.</_>
                <_>
                  38 0 1 3 2.</_></rects>
              <tilted>0</tilted></feature>
            <threshold>3.4487061202526093e-04</threshold>
            <left_val>-9.9435162544250488e-01</left_val>
            <right_val>1.</right_val></_></_>
        <_>
          <!-- tree 34 -->
          <_>
            <!-- root node -->
            <feature>
              <rects>
                <_>
                  8 20 16 8 -1.</_>
                <_>
                  8 20 8 4 2.</_>
                <_>
                  16 24 8 4 2.</_></rects>
              <tilted>0</tilted></feature>
            <threshold>1.6087590483948588e-03</threshold>
            <left_val>-1.</left_val>
            <right_val>1.0022469758987427e+00</right_val></_></_>
        <_>
          <!-- tree 35 -->
          <_>
            <!-- root node -->
            <feature>
              <rects>
                <_>
                  38 0 2 1 -1.</_>
                <_>
                  38 0 1 1 2.</_></rects>
              <tilted>0</tilted></feature>
            <threshold>0.</threshold>
            <left_val>0.</left_val>
            <right_val>-1.</right_val></_></_>
        <_>
          <!-- tree 36 -->
          <_>
            <!-- root node -->
            <feature>
              <rects>
                <_>
                  6 3 27 13 -1.</_>
                <_>
                  15 3 9 13 3.</_></rects>
              <tilted>0</tilted></feature>
            <threshold>7.0761721581220627e-03</threshold>
            <left_val>-1.</left_val>
            <right_val>1.0005899667739868e+00</right_val></_></_>
        <_>
          <!-- tree 37 -->
          <_>
            <!-- root node -->
            <feature>
              <rects>
                <_>
                  38 0 2 1 -1.</_>
                <_>
                  38 0 1 1 2.</_></rects>
              <tilted>0</tilted></feature>
            <threshold>0.</threshold>
            <left_val>0.</left_val>
            <right_val>-1.</right_val></_></_>
        <_>
          <!-- tree 38 -->
          <_>
            <!-- root node -->
            <feature>
              <rects>
                <_>
                  8 6 18 21 -1.</_>
                <_>
                  8 13 18 7 3.</_></rects>
              <tilted>0</tilted></feature>
            <threshold>1.1775610037147999e-03</threshold>
            <left_val>-1.</left_val>
            <right_val>1.0022610425949097e+00</right_val></_></_>
        <_>
          <!-- tree 39 -->
          <_>
            <!-- root node -->
            <feature>
              <rects>
                <_>
                  38 0 2 1 -1.</_>
                <_>
                  38 0 1 1 2.</_></rects>
              <tilted>0</tilted></feature>
            <threshold>0.</threshold>
            <left_val>0.</left_val>
            <right_val>-1.</right_val></_></_>
        <_>
          <!-- tree 40 -->
          <_>
            <!-- root node -->
            <feature>
              <rects>
                <_>
                  2 3 33 21 -1.</_>
                <_>
                  2 10 33 7 3.</_></rects>
              <tilted>0</tilted></feature>
            <threshold>2.9514370486140251e-02</threshold>
            <left_val>-1.</left_val>
            <right_val>1.0001679658889771e+00</right_val></_></_>
        <_>
          <!-- tree 41 -->
          <_>
            <!-- root node -->
            <feature>
              <rects>
                <_>
                  38 0 2 1 -1.</_>
                <_>
                  38 0 1 1 2.</_></rects>
              <tilted>0</tilted></feature>
            <threshold>0.</threshold>
            <left_val>0.</left_val>
            <right_val>-1.</right_val></_></_>
        <_>
          <!-- tree 42 -->
          <_>
            <!-- root node -->
            <feature>
              <rects>
                <_>
                  0 6 33 18 -1.</_>
                <_>
                  0 12 33 6 3.</_></rects>
              <tilted>0</tilted></feature>
            <threshold>6.3144378364086151e-03</threshold>
            <left_val>-1.</left_val>
            <right_val>1.0010809898376465e+00</right_val></_></_>
        <_>
          <!-- tree 43 -->
          <_>
            <!-- root node -->
            <feature>
              <rects>
                <_>
                  38 0 2 1 -1.</_>
                <_>
                  38 0 1 1 2.</_></rects>
              <tilted>0</tilted></feature>
            <threshold>0.</threshold>
            <left_val>0.</left_val>
            <right_val>-1.</right_val></_></_>
        <_>
          <!-- tree 44 -->
          <_>
            <!-- root node -->
            <feature>
              <rects>
                <_>
                  0 7 23 15 -1.</_>
                <_>
                  0 12 23 5 3.</_></rects>
              <tilted>0</tilted></feature>
            <threshold>9.6473610028624535e-03</threshold>
            <left_val>-1.</left_val>
            <right_val>1.0111659765243530e+00</right_val></_></_>
        <_>
          <!-- tree 45 -->
          <_>
            <!-- root node -->
            <feature>
              <rects>
                <_>
                  38 0 2 1 -1.</_>
                <_>
                  38 0 1 1 2.</_></rects>
              <tilted>0</tilted></feature>
            <threshold>0.</threshold>
            <left_val>0.</left_val>
            <right_val>-1.</right_val></_></_>
        <_>
          <!-- tree 46 -->
          <_>
            <!-- root node -->
            <feature>
              <rects>
                <_>
                  17 0 4 24 -1.</_>
                <_>
                  17 8 4 8 3.</_></rects>
              <tilted>0</tilted></feature>
            <threshold>1.2278029695153236e-02</threshold>
            <left_val>-1.</left_val>
            <right_val>1.0122940540313721e+00</right_val></_></_>
        <_>
          <!-- tree 47 -->
          <_>
            <!-- root node -->
            <feature>
              <rects>
                <_>
                  38 0 2 1 -1.</_>
                <_>
                  38 0 1 1 2.</_></rects>
              <tilted>0</tilted></feature>
            <threshold>0.</threshold>
            <left_val>0.</left_val>
            <right_val>-1.</right_val></_></_>
        <_>
          <!-- tree 48 -->
          <_>
            <!-- root node -->
            <feature>
              <rects>
                <_>
                  0 0 2 1 -1.</_>
                <_>
                  1 0 1 1 2.</_></rects>
              <tilted>0</tilted></feature>
            <threshold>0.</threshold>
            <left_val>0.</left_val>
            <right_val>-1.</right_val></_></_>
        <_>
          <!-- tree 49 -->
          <_>
            <!-- root node -->
            <feature>
              <rects>
                <_>
                  38 0 2 1 -1.</_>
                <_>
                  38 0 1 1 2.</_></rects>
              <tilted>0</tilted></feature>
            <threshold>0.</threshold>
            <left_val>0.</left_val>
            <right_val>-1.</right_val></_></_>
        <_>
          <!-- tree 50 -->
          <_>
            <!-- root node -->
            <feature>
              <rects>
                <_>
                  0 0 2 1 -1.</_>
                <_>
                  1 0 1 1 2.</_></rects>
              <tilted>0</tilted></feature>
            <threshold>0.</threshold>
            <left_val>0.</left_val>
            <right_val>-1.</right_val></_></_>
        <_>
          <!-- tree 51 -->
          <_>
            <!-- root node -->
            <feature>
              <rects>
                <_>
                  37 0 3 26 -1.</_>
                <_>
                  37 13 3 13 2.</_></rects>
              <tilted>0</tilted></feature>
            <threshold>-1.3297830009832978e-03</threshold>
            <left_val>1.</left_val>
            <right_val>-9.7022527456283569e-01</right_val></_></_>
        <_>
          <!-- tree 52 -->
          <_>
            <!-- root node -->
            <feature>
              <rects>
                <_>
                  0 0 9 14 -1.</_>
                <_>
                  3 0 3 14 3.</_></rects>
              <tilted>0</tilted></feature>
            <threshold>1.9424360245466232e-02</threshold>
            <left_val>-1.</left_val>
            <right_val>1.0000009536743164e+00</right_val></_></_>
        <_>
          <!-- tree 53 -->
          <_>
            <!-- root node -->
            <feature>
              <rects>
                <_>
                  38 0 2 1 -1.</_>
                <_>
                  38 0 1 1 2.</_></rects>
              <tilted>0</tilted></feature>
            <threshold>2.2651300241705030e-05</threshold>
            <left_val>-1.</left_val>
            <right_val>1.</right_val></_></_>
        <_>
          <!-- tree 54 -->
          <_>
            <!-- root node -->
            <feature>
              <rects>
                <_>
                  9 2 12 3 -1.</_>
                <_>
                  13 2 4 3 3.</_></rects>
              <tilted>0</tilted></feature>
            <threshold>-2.4314009351655841e-05</threshold>
            <left_val>9.9258089065551758e-01</left_val>
            <right_val>-9.9999982118606567e-01</right_val></_></_>
        <_>
          <!-- tree 55 -->
          <_>
            <!-- root node -->
            <feature>
              <rects>
                <_>
                  17 1 9 4 -1.</_>
                <_>
                  20 1 3 4 3.</_></rects>
              <tilted>0</tilted></feature>
            <threshold>4.1904908721335232e-04</threshold>
            <left_val>-9.7597068548202515e-01</left_val>
            <right_val>8.3533781766891479e-01</right_val></_></_>
        <_>
          <!-- tree 56 -->
          <_>
            <!-- root node -->
            <feature>
              <rects>
                <_>
                  10 0 9 16 -1.</_>
                <_>
                  13 0 3 16 3.</_></rects>
              <tilted>0</tilted></feature>
            <threshold>-1.0253080166876316e-02</threshold>
            <left_val>9.8866039514541626e-01</left_val>
            <right_val>-9.9980908632278442e-01</right_val></_></_>
        <_>
          <!-- tree 57 -->
          <_>
            <!-- root node -->
            <feature>
              <rects>
                <_>
                  17 2 9 4 -1.</_>
                <_>
                  20 2 3 4 3.</_></rects>
              <tilted>0</tilted></feature>
            <threshold>5.8102962793782353e-04</threshold>
            <left_val>-9.8707437515258789e-01</left_val>
            <right_val>5.1248282194137573e-01</right_val></_></_>
        <_>
          <!-- tree 58 -->
          <_>
            <!-- root node -->
            <feature>
              <rects>
                <_>
                  14 2 9 4 -1.</_>
                <_>
                  17 2 3 4 3.</_></rects>
              <tilted>0</tilted></feature>
            <threshold>3.7693839985877275e-03</threshold>
            <left_val>-1.</left_val>
            <right_val>9.6472847461700439e-01</right_val></_></_>
        <_>
          <!-- tree 59 -->
          <_>
            <!-- root node -->
            <feature>
              <rects>
                <_>
                  23 1 3 4 -1.</_>
                <_>
                  24 1 1 4 3.</_></rects>
              <tilted>0</tilted></feature>
            <threshold>-1.3778099855699111e-05</threshold>
            <left_val>6.3860678672790527e-01</left_val>
            <right_val>-9.9938482046127319e-01</right_val></_></_>
        <_>
          <!-- tree 60 -->
          <_>
            <!-- root node -->
            <feature>
              <rects>
                <_>
                  13 2 10 16 -1.</_>
                <_>
                  13 2 5 8 2.</_>
                <_>
                  18 10 5 8 2.</_></rects>
              <tilted>0</tilted></feature>
            <threshold>1.0640049586072564e-03</threshold>
            <left_val>-9.9966108798980713e-01</left_val>
            <right_val>9.9998897314071655e-01</right_val></_></_>
        <_>
          <!-- tree 61 -->
          <_>
            <!-- root node -->
            <feature>
              <rects>
                <_>
                  12 7 24 7 -1.</_>
                <_>
                  20 7 8 7 3.</_></rects>
              <tilted>0</tilted></feature>
            <threshold>-2.6009979192167521e-03</threshold>
            <left_val>8.1294262409210205e-01</left_val>
            <right_val>-9.9973499774932861e-01</right_val></_></_>
        <_>
          <!-- tree 62 -->
          <_>
            <!-- root node -->
            <feature>
              <rects>
                <_>
                  15 12 10 15 -1.</_>
                <_>
                  15 17 10 5 3.</_></rects>
              <tilted>0</tilted></feature>
            <threshold>-4.8385499976575375e-03</threshold>
            <left_val>9.3399137258529663e-01</left_val>
            <right_val>-9.9999988079071045e-01</right_val></_></_>
        <_>
          <!-- tree 63 -->
          <_>
            <!-- root node -->
            <feature>
              <rects>
                <_>
                  22 1 8 6 -1.</_>
                <_>
                  26 1 4 3 2.</_>
                <_>
                  22 4 4 3 2.</_></rects>
              <tilted>0</tilted></feature>
            <threshold>-9.2611188301816583e-04</threshold>
            <left_val>3.1523710489273071e-01</left_val>
            <right_val>-9.9748301506042480e-01</right_val></_></_>
        <_>
          <!-- tree 64 -->
          <_>
            <!-- root node -->
            <feature>
              <rects>
                <_>
                  2 12 18 1 -1.</_>
                <_>
                  8 12 6 1 3.</_></rects>
              <tilted>0</tilted></feature>
            <threshold>-5.8330488391220570e-03</threshold>
            <left_val>8.8041061162948608e-01</left_val>
            <right_val>-9.9935019016265869e-01</right_val></_></_>
        <_>
          <!-- tree 65 -->
          <_>
            <!-- root node -->
            <feature>
              <rects>
                <_>
                  38 0 2 3 -1.</_>
                <_>
                  38 0 1 3 2.</_></rects>
              <tilted>0</tilted></feature>
            <threshold>4.9968679377343506e-05</threshold>
            <left_val>-9.9573558568954468e-01</left_val>
            <right_val>7.2625297307968140e-01</right_val></_></_>
        <_>
          <!-- tree 66 -->
          <_>
            <!-- root node -->
            <feature>
              <rects>
                <_>
                  0 0 2 3 -1.</_>
                <_>
                  1 0 1 3 2.</_></rects>
              <tilted>0</tilted></feature>
            <threshold>1.9183379481546581e-04</threshold>
            <left_val>-9.9983727931976318e-01</left_val>
            <right_val>8.6776280403137207e-01</right_val></_></_>
        <_>
          <!-- tree 67 -->
          <_>
            <!-- root node -->
            <feature>
              <rects>
                <_>
                  33 6 3 4 -1.</_>
                <_>
                  34 6 1 4 3.</_></rects>
              <tilted>0</tilted></feature>
            <threshold>5.3146759455557913e-05</threshold>
            <left_val>-9.9928218126296997e-01</left_val>
            <right_val>1.3101540505886078e-01</right_val></_></_>
        <_>
          <!-- tree 68 -->
          <_>
            <!-- root node -->
            <feature>
              <rects>
                <_>
                  2 0 6 2 -1.</_>
                <_>
                  2 0 3 1 2.</_>
                <_>
                  5 1 3 1 2.</_></rects>
              <tilted>0</tilted></feature>
            <threshold>1.3948780542705208e-04</threshold>
            <left_val>-1.</left_val>
            <right_val>1.0126299858093262e+00</right_val></_></_>
        <_>
          <!-- tree 69 -->
          <_>
            <!-- root node -->
            <feature>
              <rects>
                <_>
                  36 0 4 12 -1.</_>
                <_>
                  36 0 2 12 2.</_></rects>
              <tilted>0</tilted></feature>
            <threshold>1.3516809791326523e-02</threshold>
            <left_val>-1.</left_val>
            <right_val>1.</right_val></_></_>
        <_>
          <!-- tree 70 -->
          <_>
            <!-- root node -->
            <feature>
              <rects>
                <_>
                  0 0 2 1 -1.</_>
                <_>
                  1 0 1 1 2.</_></rects>
              <tilted>0</tilted></feature>
            <threshold>0.</threshold>
            <left_val>0.</left_val>
            <right_val>-1.</right_val></_></_>
        <_>
          <!-- tree 71 -->
          <_>
            <!-- root node -->
            <feature>
              <rects>
                <_>
                  15 13 24 10 -1.</_>
                <_>
                  27 13 12 5 2.</_>
                <_>
                  15 18 12 5 2.</_></rects>
              <tilted>0</tilted></feature>
            <threshold>-6.1957468278706074e-03</threshold>
            <left_val>1.</left_val>
            <right_val>-9.9925029277801514e-01</right_val></_></_>
        <_>
          <!-- tree 72 -->
          <_>
            <!-- root node -->
            <feature>
              <rects>
                <_>
                  15 3 9 11 -1.</_>
                <_>
                  18 3 3 11 3.</_></rects>
              <tilted>0</tilted></feature>
            <threshold>9.9119832739233971e-03</threshold>
            <left_val>-1.</left_val>
            <right_val>1.0047160387039185e+00</right_val></_></_>
        <_>
          <!-- tree 73 -->
          <_>
            <!-- root node -->
            <feature>
              <rects>
                <_>
                  30 5 10 20 -1.</_>
                <_>
                  35 5 5 10 2.</_>
                <_>
                  30 15 5 10 2.</_></rects>
              <tilted>0</tilted></feature>
            <threshold>3.6250310949981213e-03</threshold>
            <left_val>-9.9990338087081909e-01</left_val>
            <right_val>1.</right_val></_></_>
        <_>
          <!-- tree 74 -->
          <_>
            <!-- root node -->
            <feature>
              <rects>
                <_>
                  0 0 1 26 -1.</_>
                <_>
                  0 13 1 13 2.</_></rects>
              <tilted>0</tilted></feature>
            <threshold>2.8109090635553002e-04</threshold>
            <left_val>-1.</left_val>
            <right_val>1.1481479406356812e+00</right_val></_></_>
        <_>
          <!-- tree 75 -->
          <_>
            <!-- root node -->
            <feature>
              <rects>
                <_>
                  38 0 2 1 -1.</_>
                <_>
                  38 0 1 1 2.</_></rects>
              <tilted>0</tilted></feature>
            <threshold>0.</threshold>
            <left_val>0.</left_val>
            <right_val>-1.</right_val></_></_>
        <_>
          <!-- tree 76 -->
          <_>
            <!-- root node -->
            <feature>
              <rects>
                <_>
                  0 0 2 1 -1.</_>
                <_>
                  1 0 1 1 2.</_></rects>
              <tilted>0</tilted></feature>
            <threshold>0.</threshold>
            <left_val>0.</left_val>
            <right_val>-1.</right_val></_></_>
        <_>
          <!-- tree 77 -->
          <_>
            <!-- root node -->
            <feature>
              <rects>
                <_>
                  38 0 2 1 -1.</_>
                <_>
                  38 0 1 1 2.</_></rects>
              <tilted>0</tilted></feature>
            <threshold>0.</threshold>
            <left_val>0.</left_val>
            <right_val>-1.</right_val></_></_>
        <_>
          <!-- tree 78 -->
          <_>
            <!-- root node -->
            <feature>
              <rects>
                <_>
                  0 0 2 1 -1.</_>
                <_>
                  1 0 1 1 2.</_></rects>
              <tilted>0</tilted></feature>
            <threshold>0.</threshold>
            <left_val>0.</left_val>
            <right_val>-1.</right_val></_></_>
        <_>
          <!-- tree 79 -->
          <_>
            <!-- root node -->
            <feature>
              <rects>
                <_>
                  38 0 2 1 -1.</_>
                <_>
                  38 0 1 1 2.</_></rects>
              <tilted>0</tilted></feature>
            <threshold>4.6714310883544385e-05</threshold>
            <left_val>-9.8737370967864990e-01</left_val>
            <right_val>1.</right_val></_></_>
        <_>
          <!-- tree 80 -->
          <_>
            <!-- root node -->
            <feature>
              <rects>
                <_>
                  0 3 14 16 -1.</_>
                <_>
                  0 3 7 8 2.</_>
                <_>
                  7 11 7 8 2.</_></rects>
              <tilted>0</tilted></feature>
            <threshold>1.6610059537924826e-04</threshold>
            <left_val>-1.</left_val>
            <right_val>1.0003850460052490e+00</right_val></_></_>
        <_>
          <!-- tree 81 -->
          <_>
            <!-- root node -->
            <feature>
              <rects>
                <_>
                  18 4 12 26 -1.</_>
                <_>
                  18 4 6 26 2.</_></rects>
              <tilted>0</tilted></feature>
            <threshold>-1.3414459535852075e-03</threshold>
            <left_val>1.</left_val>
            <right_val>-9.8512428998947144e-01</right_val></_></_>
        <_>
          <!-- tree 82 -->
          <_>
            <!-- root node -->
            <feature>
              <rects>
                <_>
                  14 3 12 16 -1.</_>
                <_>
                  18 3 4 16 3.</_></rects>
              <tilted>0</tilted></feature>
            <threshold>1.7591789364814758e-02</threshold>
            <left_val>-1.</left_val>
            <right_val>1.0005140304565430e+00</right_val></_></_>
        <_>
          <!-- tree 83 -->
          <_>
            <!-- root node -->
            <feature>
              <rects>
                <_>
                  20 3 6 16 -1.</_>
                <_>
                  20 3 3 16 2.</_></rects>
              <tilted>0</tilted></feature>
            <threshold>9.5733376219868660e-03</threshold>
            <left_val>-1.</left_val>
            <right_val>1.</right_val></_></_>
        <_>
          <!-- tree 84 -->
          <_>
            <!-- root node -->
            <feature>
              <rects>
                <_>
                  9 12 16 17 -1.</_>
                <_>
                  17 12 8 17 2.</_></rects>
              <tilted>0</tilted></feature>
            <threshold>1.5492120292037725e-03</threshold>
            <left_val>-1.</left_val>
            <right_val>1.0477390289306641e+00</right_val></_></_>
        <_>
          <!-- tree 85 -->
          <_>
            <!-- root node -->
            <feature>
              <rects>
                <_>
                  38 0 2 1 -1.</_>
                <_>
                  38 0 1 1 2.</_></rects>
              <tilted>0</tilted></feature>
            <threshold>0.</threshold>
            <left_val>0.</left_val>
            <right_val>-1.</right_val></_></_>
        <_>
          <!-- tree 86 -->
          <_>
            <!-- root node -->
            <feature>
              <rects>
                <_>
                  0 0 2 1 -1.</_>
                <_>
                  1 0 1 1 2.</_></rects>
              <tilted>0</tilted></feature>
            <threshold>0.</threshold>
            <left_val>0.</left_val>
            <right_val>-1.</right_val></_></_>
        <_>
          <!-- tree 87 -->
          <_>
            <!-- root node -->
            <feature>
              <rects>
                <_>
                  38 0 2 1 -1.</_>
                <_>
                  38 0 1 1 2.</_></rects>
              <tilted>0</tilted></feature>
            <threshold>0.</threshold>
            <left_val>0.</left_val>
            <right_val>-1.</right_val></_></_>
        <_>
          <!-- tree 88 -->
          <_>
            <!-- root node -->
            <feature>
              <rects>
                <_>
                  0 0 2 1 -1.</_>
                <_>
                  1 0 1 1 2.</_></rects>
              <tilted>0</tilted></feature>
            <threshold>0.</threshold>
            <left_val>0.</left_val>
            <right_val>-1.</right_val></_></_>
        <_>
          <!-- tree 89 -->
          <_>
            <!-- root node -->
            <feature>
              <rects>
                <_>
                  38 0 2 1 -1.</_>
                <_>
                  38 0 1 1 2.</_></rects>
              <tilted>0</tilted></feature>
            <threshold>9.9645303635043092e-06</threshold>
            <left_val>-9.7695779800415039e-01</left_val>
            <right_val>1.</right_val></_></_>
        <_>
          <!-- tree 90 -->
          <_>
            <!-- root node -->
            <feature>
              <rects>
                <_>
                  13 0 6 9 -1.</_>
                <_>
                  16 0 3 9 2.</_></rects>
              <tilted>0</tilted></feature>
            <threshold>2.1520128939300776e-03</threshold>
            <left_val>-1.</left_val>
            <right_val>1.0000040531158447e+00</right_val></_></_>
        <_>
          <!-- tree 91 -->
          <_>
            <!-- root node -->
            <feature>
              <rects>
                <_>
                  32 9 6 6 -1.</_>
                <_>
                  34 9 2 6 3.</_></rects>
              <tilted>0</tilted></feature>
            <threshold>6.7412527278065681e-04</threshold>
            <left_val>-9.9884939193725586e-01</left_val>
            <right_val>9.9371898174285889e-01</right_val></_></_>
        <_>
          <!-- tree 92 -->
          <_>
            <!-- root node -->
            <feature>
              <rects>
                <_>
                  0 5 14 20 -1.</_>
                <_>
                  0 5 7 10 2.</_>
                <_>
                  7 15 7 10 2.</_></rects>
              <tilted>0</tilted></feature>
            <threshold>1.3679100200533867e-02</threshold>
            <left_val>-1.</left_val>
            <right_val>1.0001859664916992e+00</right_val></_></_>
        <_>
          <!-- tree 93 -->
          <_>
            <!-- root node -->
            <feature>
              <rects>
                <_>
                  18 6 22 6 -1.</_>
                <_>
                  29 6 11 3 2.</_>
                <_>
                  18 9 11 3 2.</_></rects>
              <tilted>0</tilted></feature>
            <threshold>-3.8399279583245516e-04</threshold>
            <left_val>1.</left_val>
            <right_val>-1.</right_val></_></_>
        <_>
          <!-- tree 94 -->
          <_>
            <!-- root node -->
            <feature>
              <rects>
                <_>
                  4 4 12 18 -1.</_>
                <_>
                  4 10 12 6 3.</_></rects>
              <tilted>0</tilted></feature>
            <threshold>7.6049841009080410e-03</threshold>
            <left_val>-1.</left_val>
            <right_val>1.0087490081787109e+00</right_val></_></_>
        <_>
          <!-- tree 95 -->
          <_>
            <!-- root node -->
            <feature>
              <rects>
                <_>
                  38 0 2 1 -1.</_>
                <_>
                  38 0 1 1 2.</_></rects>
              <tilted>0</tilted></feature>
            <threshold>0.</threshold>
            <left_val>0.</left_val>
            <right_val>-1.</right_val></_></_>
        <_>
          <!-- tree 96 -->
          <_>
            <!-- root node -->
            <feature>
              <rects>
                <_>
                  0 0 2 1 -1.</_>
                <_>
                  1 0 1 1 2.</_></rects>
              <tilted>0</tilted></feature>
            <threshold>0.</threshold>
            <left_val>0.</left_val>
            <right_val>-1.</right_val></_></_>
        <_>
          <!-- tree 97 -->
          <_>
            <!-- root node -->
            <feature>
              <rects>
                <_>
                  38 0 2 1 -1.</_>
                <_>
                  38 0 1 1 2.</_></rects>
              <tilted>0</tilted></feature>
            <threshold>0.</threshold>
            <left_val>0.</left_val>
            <right_val>-1.</right_val></_></_>
        <_>
          <!-- tree 98 -->
          <_>
            <!-- root node -->
            <feature>
              <rects>
                <_>
                  0 0 2 1 -1.</_>
                <_>
                  1 0 1 1 2.</_></rects>
              <tilted>0</tilted></feature>
            <threshold>0.</threshold>
            <left_val>0.</left_val>
            <right_val>-1.</right_val></_></_>
        <_>
          <!-- tree 99 -->
          <_>
            <!-- root node -->
            <feature>
              <rects>
                <_>
                  38 0 2 1 -1.</_>
                <_>
                  38 0 1 1 2.</_></rects>
              <tilted>0</tilted></feature>
            <threshold>9.7403928521089256e-05</threshold>
            <left_val>-9.3933677673339844e-01</left_val>
            <right_val>1.</right_val></_></_>
        <_>
          <!-- tree 100 -->
          <_>
            <!-- root node -->
            <feature>
              <rects>
                <_>
                  0 0 2 1 -1.</_>
                <_>
                  1 0 1 1 2.</_></rects>
              <tilted>0</tilted></feature>
            <threshold>2.1977250071358867e-05</threshold>
            <left_val>-1.</left_val>
            <right_val>1.</right_val></_></_>
        <_>
          <!-- tree 101 -->
          <_>
            <!-- root node -->
            <feature>
              <rects>
                <_>
                  13 6 15 9 -1.</_>
                <_>
                  18 6 5 9 3.</_></rects>
              <tilted>0</tilted></feature>
            <threshold>1.1070769978687167e-03</threshold>
            <left_val>-9.9855190515518188e-01</left_val>
            <right_val>1.</right_val></_></_>
        <_>
          <!-- tree 102 -->
          <_>
            <!-- root node -->
            <feature>
              <rects>
                <_>
                  2 5 6 1 -1.</_>
                <_>
                  4 5 2 1 3.</_></rects>
              <tilted>0</tilted></feature>
            <threshold>1.0114390170201659e-04</threshold>
            <left_val>-1.</left_val>
            <right_val>1.0029879808425903e+00</right_val></_></_>
        <_>
          <!-- tree 103 -->
          <_>
            <!-- root node -->
            <feature>
              <rects>
                <_>
                  18 7 18 18 -1.</_>
                <_>
                  18 13 18 6 3.</_></rects>
              <tilted>0</tilted></feature>
            <threshold>1.3114100322127342e-02</threshold>
            <left_val>-1.</left_val>
            <right_val>1.</right_val></_></_>
        <_>
          <!-- tree 104 -->
          <_>
            <!-- root node -->
            <feature>
              <rects>
                <_>
                  0 0 2 1 -1.</_>
                <_>
                  1 0 1 1 2.</_></rects>
              <tilted>0</tilted></feature>
            <threshold>0.</threshold>
            <left_val>0.</left_val>
            <right_val>-1.</right_val></_></_>
        <_>
          <!-- tree 105 -->
          <_>
            <!-- root node -->
            <feature>
              <rects>
                <_>
                  38 0 2 1 -1.</_>
                <_>
                  38 0 1 1 2.</_></rects>
              <tilted>0</tilted></feature>
            <threshold>0.</threshold>
            <left_val>0.</left_val>
            <right_val>-1.</right_val></_></_>
        <_>
          <!-- tree 106 -->
          <_>
            <!-- root node -->
            <feature>
              <rects>
                <_>
                  0 0 2 1 -1.</_>
                <_>
                  1 0 1 1 2.</_></rects>
              <tilted>0</tilted></feature>
            <threshold>0.</threshold>
            <left_val>0.</left_val>
            <right_val>-1.</right_val></_></_>
        <_>
          <!-- tree 107 -->
          <_>
            <!-- root node -->
            <feature>
              <rects>
                <_>
                  38 0 2 1 -1.</_>
                <_>
                  38 0 1 1 2.</_></rects>
              <tilted>0</tilted></feature>
            <threshold>0.</threshold>
            <left_val>0.</left_val>
            <right_val>-1.</right_val></_></_>
        <_>
          <!-- tree 108 -->
          <_>
            <!-- root node -->
            <feature>
              <rects>
                <_>
                  0 0 2 1 -1.</_>
                <_>
                  1 0 1 1 2.</_></rects>
              <tilted>0</tilted></feature>
            <threshold>2.9691759846173227e-04</threshold>
            <left_val>-1.</left_val>
            <right_val>1.</right_val></_></_>
        <_>
          <!-- tree 109 -->
          <_>
            <!-- root node -->
            <feature>
              <rects>
                <_>
                  38 0 2 1 -1.</_>
                <_>
                  38 0 1 1 2.</_></rects>
              <tilted>0</tilted></feature>
            <threshold>0.</threshold>
            <left_val>0.</left_val>
            <right_val>-1.</right_val></_></_>
        <_>
          <!-- tree 110 -->
          <_>
            <!-- root node -->
            <feature>
              <rects>
                <_>
                  0 0 1 24 -1.</_>
                <_>
                  0 12 1 12 2.</_></rects>
              <tilted>0</tilted></feature>
            <threshold>-1.2237789633218199e-04</threshold>
            <left_val>1.</left_val>
            <right_val>-1.</right_val></_></_>
        <_>
          <!-- tree 111 -->
          <_>
            <!-- root node -->
            <feature>
              <rects>
                <_>
                  38 0 2 1 -1.</_>
                <_>
                  38 0 1 1 2.</_></rects>
              <tilted>0</tilted></feature>
            <threshold>1.8782249753712676e-05</threshold>
            <left_val>-9.3560987710952759e-01</left_val>
            <right_val>1.</right_val></_></_>
        <_>
          <!-- tree 112 -->
          <_>
            <!-- root node -->
            <feature>
              <rects>
                <_>
                  0 0 2 1 -1.</_>
                <_>
                  1 0 1 1 2.</_></rects>
              <tilted>0</tilted></feature>
            <threshold>2.1977250071358867e-05</threshold>
            <left_val>-1.</left_val>
            <right_val>1.</right_val></_></_>
        <_>
          <!-- tree 113 -->
          <_>
            <!-- root node -->
            <feature>
              <rects>
                <_>
                  39 0 1 4 -1.</_>
                <_>
                  39 2 1 2 2.</_></rects>
              <tilted>0</tilted></feature>
            <threshold>2.3076120123732835e-04</threshold>
            <left_val>-9.7824501991271973e-01</left_val>
            <right_val>1.</right_val></_></_>
        <_>
          <!-- tree 114 -->
          <_>
            <!-- root node -->
            <feature>
              <rects>
                <_>
                  0 0 2 1 -1.</_>
                <_>
                  1 0 1 1 2.</_></rects>
              <tilted>0</tilted></feature>
            <threshold>8.3692662883549929e-05</threshold>
            <left_val>-1.</left_val>
            <right_val>1.</right_val></_></_>
        <_>
          <!-- tree 115 -->
          <_>
            <!-- root node -->
            <feature>
              <rects>
                <_>
                  38 0 2 1 -1.</_>
                <_>
                  38 0 1 1 2.</_></rects>
              <tilted>0</tilted></feature>
            <threshold>0.</threshold>
            <left_val>0.</left_val>
            <right_val>-1.</right_val></_></_>
        <_>
          <!-- tree 116 -->
          <_>
            <!-- root node -->
            <feature>
              <rects>
                <_>
                  0 0 2 1 -1.</_>
                <_>
                  1 0 1 1 2.</_></rects>
              <tilted>0</tilted></feature>
            <threshold>0.</threshold>
            <left_val>0.</left_val>
            <right_val>-1.</right_val></_></_>
        <_>
          <!-- tree 117 -->
          <_>
            <!-- root node -->
            <feature>
              <rects>
                <_>
                  39 0 1 4 -1.</_>
                <_>
                  39 2 1 2 2.</_></rects>
              <tilted>0</tilted></feature>
            <threshold>-5.5795098887756467e-05</threshold>
            <left_val>1.</left_val>
            <right_val>-9.2959588766098022e-01</right_val></_></_>
        <_>
          <!-- tree 118 -->
          <_>
            <!-- root node -->
            <feature>
              <rects>
                <_>
                  0 0 2 4 -1.</_>
                <_>
                  1 0 1 4 2.</_></rects>
              <tilted>0</tilted></feature>
            <threshold>2.2669129975838587e-05</threshold>
            <left_val>-1.</left_val>
            <right_val>9.9999982118606567e-01</right_val></_></_>
        <_>
          <!-- tree 119 -->
          <_>
            <!-- root node -->
            <feature>
              <rects>
                <_>
                  38 0 2 1 -1.</_>
                <_>
                  38 0 1 1 2.</_></rects>
              <tilted>0</tilted></feature>
            <threshold>0.</threshold>
            <left_val>0.</left_val>
            <right_val>-9.5578438043594360e-01</right_val></_></_>
        <_>
          <!-- tree 120 -->
          <_>
            <!-- root node -->
            <feature>
              <rects>
                <_>
                  0 0 2 4 -1.</_>
                <_>
                  1 0 1 4 2.</_></rects>
              <tilted>0</tilted></feature>
            <threshold>2.2669129975838587e-05</threshold>
            <left_val>-1.</left_val>
            <right_val>1.</right_val></_></_>
        <_>
          <!-- tree 121 -->
          <_>
            <!-- root node -->
            <feature>
              <rects>
                <_>
                  38 0 2 1 -1.</_>
                <_>
                  38 0 1 1 2.</_></rects>
              <tilted>0</tilted></feature>
            <threshold>0.</threshold>
            <left_val>0.</left_val>
            <right_val>-1.</right_val></_></_>
        <_>
          <!-- tree 122 -->
          <_>
            <!-- root node -->
            <feature>
              <rects>
                <_>
                  0 0 2 1 -1.</_>
                <_>
                  1 0 1 1 2.</_></rects>
              <tilted>0</tilted></feature>
            <threshold>2.1977250071358867e-05</threshold>
            <left_val>-1.</left_val>
            <right_val>1.</right_val></_></_>
        <_>
          <!-- tree 123 -->
          <_>
            <!-- root node -->
            <feature>
              <rects>
                <_>
                  38 0 2 1 -1.</_>
                <_>
                  38 0 1 1 2.</_></rects>
              <tilted>0</tilted></feature>
            <threshold>0.</threshold>
            <left_val>0.</left_val>
            <right_val>-1.</right_val></_></_>
        <_>
          <!-- tree 124 -->
          <_>
            <!-- root node -->
            <feature>
              <rects>
                <_>
                  0 0 1 2 -1.</_>
                <_>
                  0 1 1 1 2.</_></rects>
              <tilted>0</tilted></feature>
            <threshold>2.2856660507386550e-05</threshold>
            <left_val>-1.</left_val>
            <right_val>1.</right_val></_></_>
        <_>
          <!-- tree 125 -->
          <_>
            <!-- root node -->
            <feature>
              <rects>
                <_>
                  38 0 2 1 -1.</_>
                <_>
                  38 0 1 1 2.</_></rects>
              <tilted>0</tilted></feature>
            <threshold>0.</threshold>
            <left_val>0.</left_val>
            <right_val>-1.</right_val></_></_>
        <_>
          <!-- tree 126 -->
          <_>
            <!-- root node -->
            <feature>
              <rects>
                <_>
                  0 0 2 1 -1.</_>
                <_>
                  1 0 1 1 2.</_></rects>
              <tilted>0</tilted></feature>
            <threshold>0.</threshold>
            <left_val>0.</left_val>
            <right_val>-1.</right_val></_></_>
        <_>
          <!-- tree 127 -->
          <_>
            <!-- root node -->
            <feature>
              <rects>
                <_>
                  38 0 2 4 -1.</_>
                <_>
                  38 0 1 4 2.</_></rects>
              <tilted>0</tilted></feature>
            <threshold>1.7001849482767284e-04</threshold>
            <left_val>-1.</left_val>
            <right_val>1.</right_val></_></_>
        <_>
          <!-- tree 128 -->
          <_>
            <!-- root node -->
            <feature>
              <rects>
                <_>
                  0 0 2 1 -1.</_>
                <_>
                  1 0 1 1 2.</_></rects>
              <tilted>0</tilted></feature>
            <threshold>2.1977250071358867e-05</threshold>
            <left_val>-1.</left_val>
            <right_val>1.</right_val></_></_>
        <_>
          <!-- tree 129 -->
          <_>
            <!-- root node -->
            <feature>
              <rects>
                <_>
                  38 0 2 1 -1.</_>
                <_>
                  38 0 1 1 2.</_></rects>
              <tilted>0</tilted></feature>
            <threshold>0.</threshold>
            <left_val>0.</left_val>
            <right_val>-1.</right_val></_></_>
        <_>
          <!-- tree 130 -->
          <_>
            <!-- root node -->
            <feature>
              <rects>
                <_>
                  0 0 1 2 -1.</_>
                <_>
                  0 1 1 1 2.</_></rects>
              <tilted>0</tilted></feature>
            <threshold>2.2856660507386550e-05</threshold>
            <left_val>-1.</left_val>
            <right_val>1.</right_val></_></_>
        <_>
          <!-- tree 131 -->
          <_>
            <!-- root node -->
            <feature>
              <rects>
                <_>
                  38 0 2 1 -1.</_>
                <_>
                  38 0 1 1 2.</_></rects>
              <tilted>0</tilted></feature>
            <threshold>0.</threshold>
            <left_val>0.</left_val>
            <right_val>-1.</right_val></_></_>
        <_>
          <!-- tree 132 -->
          <_>
            <!-- root node -->
            <feature>
              <rects>
                <_>
                  0 0 2 1 -1.</_>
                <_>
                  1 0 1 1 2.</_></rects>
              <tilted>0</tilted></feature>
            <threshold>2.1977250071358867e-05</threshold>
            <left_val>-1.</left_val>
            <right_val>1.</right_val></_></_>
        <_>
          <!-- tree 133 -->
          <_>
            <!-- root node -->
            <feature>
              <rects>
                <_>
                  38 0 2 1 -1.</_>
                <_>
                  38 0 1 1 2.</_></rects>
              <tilted>0</tilted></feature>
            <threshold>0.</threshold>
            <left_val>0.</left_val>
            <right_val>-1.</right_val></_></_>
        <_>
          <!-- tree 134 -->
          <_>
            <!-- root node -->
            <feature>
              <rects>
                <_>
                  0 0 2 2 -1.</_>
                <_>
                  0 0 1 1 2.</_>
                <_>
                  1 1 1 1 2.</_></rects>
              <tilted>0</tilted></feature>
            <threshold>5.5112399422796443e-05</threshold>
            <left_val>-1.</left_val>
            <right_val>1.</right_val></_></_>
        <_>
          <!-- tree 135 -->
          <_>
            <!-- root node -->
            <feature>
              <rects>
                <_>
                  38 0 2 1 -1.</_>
                <_>
                  38 0 1 1 2.</_></rects>
              <tilted>0</tilted></feature>
            <threshold>0.</threshold>
            <left_val>0.</left_val>
            <right_val>-1.</right_val></_></_>
        <_>
          <!-- tree 136 -->
          <_>
            <!-- root node -->
            <feature>
              <rects>
                <_>
                  0 0 2 1 -1.</_>
                <_>
                  1 0 1 1 2.</_></rects>
              <tilted>0</tilted></feature>
            <threshold>2.1977250071358867e-05</threshold>
            <left_val>-1.</left_val>
            <right_val>1.</right_val></_></_>
        <_>
          <!-- tree 137 -->
          <_>
            <!-- root node -->
            <feature>
              <rects>
                <_>
                  38 0 2 1 -1.</_>
                <_>
                  38 0 1 1 2.</_></rects>
              <tilted>0</tilted></feature>
            <threshold>0.</threshold>
            <left_val>0.</left_val>
            <right_val>-1.</right_val></_></_>
        <_>
          <!-- tree 138 -->
          <_>
            <!-- root node -->
            <feature>
              <rects>
                <_>
                  0 0 2 2 -1.</_>
                <_>
                  0 0 1 1 2.</_>
                <_>
                  1 1 1 1 2.</_></rects>
              <tilted>0</tilted></feature>
            <threshold>5.5112399422796443e-05</threshold>
            <left_val>-1.</left_val>
            <right_val>1.</right_val></_></_>
        <_>
          <!-- tree 139 -->
          <_>
            <!-- root node -->
            <feature>
              <rects>
                <_>
                  38 0 2 1 -1.</_>
                <_>
                  38 0 1 1 2.</_></rects>
              <tilted>0</tilted></feature>
            <threshold>0.</threshold>
            <left_val>0.</left_val>
            <right_val>-1.</right_val></_></_>
        <_>
          <!-- tree 140 -->
          <_>
            <!-- root node -->
            <feature>
              <rects>
                <_>
                  0 0 3 1 -1.</_>
                <_>
                  1 0 1 1 3.</_></rects>
              <tilted>0</tilted></feature>
            <threshold>1.3778099855699111e-05</threshold>
            <left_val>-1.</left_val>
            <right_val>1.</right_val></_></_>
        <_>
          <!-- tree 141 -->
          <_>
            <!-- root node -->
            <feature>
              <rects>
                <_>
                  38 0 2 1 -1.</_>
                <_>
                  38 0 1 1 2.</_></rects>
              <tilted>0</tilted></feature>
            <threshold>0.</threshold>
            <left_val>0.</left_val>
            <right_val>-1.</right_val></_></_>
        <_>
          <!-- tree 142 -->
          <_>
            <!-- root node -->
            <feature>
              <rects>
                <_>
                  0 0 3 1 -1.</_>
                <_>
                  1 0 1 1 3.</_></rects>
              <tilted>0</tilted></feature>
            <threshold>-3.4284981666132808e-05</threshold>
            <left_val>1.</left_val>
            <right_val>-1.</right_val></_></_>
        <_>
          <!-- tree 143 -->
          <_>
            <!-- root node -->
            <feature>
              <rects>
                <_>
                  38 0 2 20 -1.</_>
                <_>
                  39 0 1 10 2.</_>
                <_>
                  38 10 1 10 2.</_></rects>
              <tilted>0</tilted></feature>
            <threshold>4.5053369831293821e-04</threshold>
            <left_val>-9.6085357666015625e-01</left_val>
            <right_val>1.</right_val></_></_>
        <_>
          <!-- tree 144 -->
          <_>
            <!-- root node -->
            <feature>
              <rects>
                <_>
                  0 0 2 1 -1.</_>
                <_>
                  1 0 1 1 2.</_></rects>
              <tilted>0</tilted></feature>
            <threshold>-6.6624910687096417e-05</threshold>
            <left_val>1.</left_val>
            <right_val>-1.</right_val></_></_>
        <_>
          <!-- tree 145 -->
          <_>
            <!-- root node -->
            <feature>
              <rects>
                <_>
                  38 0 2 20 -1.</_>
                <_>
                  39 0 1 10 2.</_>
                <_>
                  38 10 1 10 2.</_></rects>
              <tilted>0</tilted></feature>
            <threshold>4.5053369831293821e-04</threshold>
            <left_val>-9.6232831478118896e-01</left_val>
            <right_val>1.</right_val></_></_>
        <_>
          <!-- tree 146 -->
          <_>
            <!-- root node -->
            <feature>
              <rects>
                <_>
                  0 0 1 2 -1.</_>
                <_>
                  0 1 1 1 2.</_></rects>
              <tilted>0</tilted></feature>
            <threshold>-3.3312458981527016e-05</threshold>
            <left_val>1.</left_val>
            <right_val>-1.</right_val></_></_>
        <_>
          <!-- tree 147 -->
          <_>
            <!-- root node -->
            <feature>
              <rects>
                <_>
                  38 0 2 3 -1.</_>
                <_>
                  38 0 1 3 2.</_></rects>
              <tilted>0</tilted></feature>
            <threshold>2.9707949579460546e-05</threshold>
            <left_val>-8.9324408769607544e-01</left_val>
            <right_val>1.</right_val></_></_>
        <_>
          <!-- tree 148 -->
          <_>
            <!-- root node -->
            <feature>
              <rects>
                <_>
                  0 0 1 2 -1.</_>
                <_>
                  0 1 1 1 2.</_></rects>
              <tilted>0</tilted></feature>
            <threshold>2.2856660507386550e-05</threshold>
            <left_val>-1.</left_val>
            <right_val>1.</right_val></_></_>
        <_>
          <!-- tree 149 -->
          <_>
            <!-- root node -->
            <feature>
              <rects>
                <_>
                  38 0 2 1 -1.</_>
                <_>
                  38 0 1 1 2.</_></rects>
              <tilted>0</tilted></feature>
            <threshold>0.</threshold>
            <left_val>0.</left_val>
            <right_val>-1.</right_val></_></_>
        <_>
          <!-- tree 150 -->
          <_>
            <!-- root node -->
            <feature>
              <rects>
                <_>
                  0 0 1 6 -1.</_>
                <_>
                  0 2 1 2 3.</_></rects>
              <tilted>0</tilted></feature>
            <threshold>-6.8569963332265615e-05</threshold>
            <left_val>1.</left_val>
            <right_val>-1.</right_val></_></_>
        <_>
          <!-- tree 151 -->
          <_>
            <!-- root node -->
            <feature>
              <rects>
                <_>
                  36 0 4 4 -1.</_>
                <_>
                  38 0 2 2 2.</_>
                <_>
                  36 2 2 2 2.</_></rects>
              <tilted>0</tilted></feature>
            <threshold>2.6884360704571009e-04</threshold>
            <left_val>-1.</left_val>
            <right_val>1.</right_val></_></_>
        <_>
          <!-- tree 152 -->
          <_>
            <!-- root node -->
            <feature>
              <rects>
                <_>
                  0 0 4 4 -1.</_>
                <_>
                  0 0 2 2 2.</_>
                <_>
                  2 2 2 2 2.</_></rects>
              <tilted>0</tilted></feature>
            <threshold>2.1653099975083023e-04</threshold>
            <left_val>-1.</left_val>
            <right_val>1.</right_val></_></_>
        <_>
          <!-- tree 153 -->
          <_>
            <!-- root node -->
            <feature>
              <rects>
                <_>
                  38 0 2 1 -1.</_>
                <_>
                  38 0 1 1 2.</_></rects>
              <tilted>0</tilted></feature>
            <threshold>4.3828360503539443e-04</threshold>
            <left_val>-1.</left_val>
            <right_val>1.</right_val></_></_>
        <_>
          <!-- tree 154 -->
          <_>
            <!-- root node -->
            <feature>
              <rects>
                <_>
                  0 0 4 10 -1.</_>
                <_>
                  0 0 2 5 2.</_>
                <_>
                  2 5 2 5 2.</_></rects>
              <tilted>0</tilted></feature>
            <threshold>4.3512138654477894e-04</threshold>
            <left_val>-1.</left_val>
            <right_val>1.</right_val></_></_>
        <_>
          <!-- tree 155 -->
          <_>
            <!-- root node -->
            <feature>
              <rects>
                <_>
                  38 0 2 1 -1.</_>
                <_>
                  38 0 1 1 2.</_></rects>
              <tilted>0</tilted></feature>
            <threshold>0.</threshold>
            <left_val>0.</left_val>
            <right_val>-1.</right_val></_></_>
        <_>
          <!-- tree 156 -->
          <_>
            <!-- root node -->
            <feature>
              <rects>
                <_>
                  0 0 1 3 -1.</_>
                <_>
                  0 1 1 1 3.</_></rects>
              <tilted>0</tilted></feature>
            <threshold>-1.0776110138976946e-04</threshold>
            <left_val>1.</left_val>
            <right_val>-1.</right_val></_></_>
        <_>
          <!-- tree 157 -->
          <_>
            <!-- root node -->
            <feature>
              <rects>
                <_>
                  36 0 4 9 -1.</_>
                <_>
                  36 0 2 9 2.</_></rects>
              <tilted>0</tilted></feature>
            <threshold>1.1398290516808629e-03</threshold>
            <left_val>-9.6369570493698120e-01</left_val>
            <right_val>1.</right_val></_></_>
        <_>
          <!-- tree 158 -->
          <_>
            <!-- root node -->
            <feature>
              <rects>
                <_>
                  0 0 1 2 -1.</_>
                <_>
                  0 1 1 1 2.</_></rects>
              <tilted>0</tilted></feature>
            <threshold>-3.3312458981527016e-05</threshold>
            <left_val>1.</left_val>
            <right_val>-1.</right_val></_></_>
        <_>
          <!-- tree 159 -->
          <_>
            <!-- root node -->
            <feature>
              <rects>
                <_>
                  38 0 2 3 -1.</_>
                <_>
                  38 0 1 3 2.</_></rects>
              <tilted>0</tilted></feature>
            <threshold>4.9968679377343506e-05</threshold>
            <left_val>-8.0010902881622314e-01</left_val>
            <right_val>1.</right_val></_></_>
        <_>
          <!-- tree 160 -->
          <_>
            <!-- root node -->
            <feature>
              <rects>
                <_>
                  0 0 1 2 -1.</_>
                <_>
                  0 1 1 1 2.</_></rects>
              <tilted>0</tilted></feature>
            <threshold>2.2856660507386550e-05</threshold>
            <left_val>-1.</left_val>
            <right_val>1.</right_val></_></_>
        <_>
          <!-- tree 161 -->
          <_>
            <!-- root node -->
            <feature>
              <rects>
                <_>
                  38 0 2 1 -1.</_>
                <_>
                  38 0 1 1 2.</_></rects>
              <tilted>0</tilted></feature>
            <threshold>0.</threshold>
            <left_val>0.</left_val>
            <right_val>-1.</right_val></_></_>
        <_>
          <!-- tree 162 -->
          <_>
            <!-- root node -->
            <feature>
              <rects>
                <_>
                  0 0 2 6 -1.</_>
                <_>
                  0 0 1 3 2.</_>
                <_>
                  1 3 1 3 2.</_></rects>
              <tilted>0</tilted></feature>
            <threshold>1.1250880197621882e-04</threshold>
            <left_val>-1.</left_val>
            <right_val>1.</right_val></_></_>
        <_>
          <!-- tree 163 -->
          <_>
            <!-- root node -->
            <feature>
              <rects>
                <_>
                  38 0 2 1 -1.</_>
                <_>
                  38 0 1 1 2.</_></rects>
              <tilted>0</tilted></feature>
            <threshold>0.</threshold>
            <left_val>0.</left_val>
            <right_val>-1.</right_val></_></_>
        <_>
          <!-- tree 164 -->
          <_>
            <!-- root node -->
            <feature>
              <rects>
                <_>
                  0 0 2 4 -1.</_>
                <_>
                  0 0 1 2 2.</_>
                <_>
                  1 2 1 2 2.</_></rects>
              <tilted>0</tilted></feature>
            <threshold>2.5142318918369710e-04</threshold>
            <left_val>-1.</left_val>
            <right_val>1.</right_val></_></_>
        <_>
          <!-- tree 165 -->
          <_>
            <!-- root node -->
            <feature>
              <rects>
                <_>
                  38 0 2 1 -1.</_>
                <_>
                  38 0 1 1 2.</_></rects>
              <tilted>0</tilted></feature>
            <threshold>0.</threshold>
            <left_val>0.</left_val>
            <right_val>-1.</right_val></_></_>
        <_>
          <!-- tree 166 -->
          <_>
            <!-- root node -->
            <feature>
              <rects>
                <_>
                  0 0 2 4 -1.</_>
                <_>
                  0 0 1 2 2.</_>
                <_>
                  1 2 1 2 2.</_></rects>
              <tilted>0</tilted></feature>
            <threshold>-9.3061251391191036e-05</threshold>
            <left_val>1.</left_val>
            <right_val>-1.</right_val></_></_>
        <_>
          <!-- tree 167 -->
          <_>
            <!-- root node -->
            <feature>
              <rects>
                <_>
                  30 0 10 6 -1.</_>
                <_>
                  35 0 5 3 2.</_>
                <_>
                  30 3 5 3 2.</_></rects>
              <tilted>0</tilted></feature>
            <threshold>-2.1653099975083023e-04</threshold>
            <left_val>1.</left_val>
            <right_val>-8.7674552202224731e-01</right_val></_></_>
        <_>
          <!-- tree 168 -->
          <_>
            <!-- root node -->
            <feature>
              <rects>
                <_>
                  0 0 1 3 -1.</_>
                <_>
                  0 1 1 1 3.</_></rects>
              <tilted>0</tilted></feature>
            <threshold>-1.0776110138976946e-04</threshold>
            <left_val>1.</left_val>
            <right_val>-1.</right_val></_></_>
        <_>
          <!-- tree 169 -->
          <_>
            <!-- root node -->
            <feature>
              <rects>
                <_>
                  39 0 1 9 -1.</_>
                <_>
                  39 3 1 3 3.</_></rects>
              <tilted>0</tilted></feature>
            <threshold>-2.0454819605220109e-04</threshold>
            <left_val>1.</left_val>
            <right_val>-9.1522091627120972e-01</right_val></_></_>
        <_>
          <!-- tree 170 -->
          <_>
            <!-- root node -->
            <feature>
              <rects>
                <_>
                  0 0 1 12 -1.</_>
                <_>
                  0 4 1 4 3.</_></rects>
              <tilted>0</tilted></feature>
            <threshold>7.4742907600011677e-05</threshold>
            <left_val>-1.</left_val>
            <right_val>1.</right_val></_></_>
        <_>
          <!-- tree 171 -->
          <_>
            <!-- root node -->
            <feature>
              <rects>
                <_>
                  38 0 2 12 -1.</_>
                <_>
                  39 0 1 6 2.</_>
                <_>
                  38 6 1 6 2.</_></rects>
              <tilted>0</tilted></feature>
            <threshold>-4.0305880247615278e-04</threshold>
            <left_val>1.</left_val>
            <right_val>-9.5590180158615112e-01</right_val></_></_>
        <_>
          <!-- tree 172 -->
          <_>
            <!-- root node -->
            <feature>
              <rects>
                <_>
                  0 0 10 6 -1.</_>
                <_>
                  0 0 5 3 2.</_>
                <_>
                  5 3 5 3 2.</_></rects>
              <tilted>0</tilted></feature>
            <threshold>-1.5487220371142030e-03</threshold>
            <left_val>1.</left_val>
            <right_val>-1.</right_val></_></_>
        <_>
          <!-- tree 173 -->
          <_>
            <!-- root node -->
            <feature>
              <rects>
                <_>
                  28 0 12 8 -1.</_>
                <_>
                  28 0 6 8 2.</_></rects>
              <tilted>0</tilted></feature>
            <threshold>-4.1552569018676877e-04</threshold>
            <left_val>1.</left_val>
            <right_val>-8.2695007324218750e-01</right_val></_></_>
        <_>
          <!-- tree 174 -->
          <_>
            <!-- root node -->
            <feature>
              <rects>
                <_>
                  0 11 25 10 -1.</_>
                <_>
                  0 16 25 5 2.</_></rects>
              <tilted>0</tilted></feature>
            <threshold>-1.8896360415965319e-03</threshold>
            <left_val>1.</left_val>
            <right_val>-1.</right_val></_></_>
        <_>
          <!-- tree 175 -->
          <_>
            <!-- root node -->
            <feature>
              <rects>
                <_>
                  22 0 18 10 -1.</_>
                <_>
                  28 0 6 10 3.</_></rects>
              <tilted>0</tilted></feature>
            <threshold>7.1902777999639511e-03</threshold>
            <left_val>-6.2991029024124146e-01</left_val>
            <right_val>1.</right_val></_></_>
        <_>
          <!-- tree 176 -->
          <_>
            <!-- root node -->
            <feature>
              <rects>
                <_>
                  0 0 12 8 -1.</_>
                <_>
                  6 0 6 8 2.</_></rects>
              <tilted>0</tilted></feature>
            <threshold>-2.8336409013718367e-04</threshold>
            <left_val>1.</left_val>
            <right_val>-1.</right_val></_></_>
        <_>
          <!-- tree 177 -->
          <_>
            <!-- root node -->
            <feature>
              <rects>
                <_>
                  31 0 9 5 -1.</_>
                <_>
                  34 0 3 5 3.</_></rects>
              <tilted>0</tilted></feature>
            <threshold>2.9366000089794397e-03</threshold>
            <left_val>-8.9136362075805664e-01</left_val>
            <right_val>1.</right_val></_></_>
        <_>
          <!-- tree 178 -->
          <_>
            <!-- root node -->
            <feature>
              <rects>
                <_>
                  0 0 2 1 -1.</_>
                <_>
                  1 0 1 1 2.</_></rects>
              <tilted>0</tilted></feature>
            <threshold>1.7266950453631580e-04</threshold>
            <left_val>-1.</left_val>
            <right_val>1.</right_val></_></_>
        <_>
          <!-- tree 179 -->
          <_>
            <!-- root node -->
            <feature>
              <rects>
                <_>
                  38 0 2 1 -1.</_>
                <_>
                  38 0 1 1 2.</_></rects>
              <tilted>0</tilted></feature>
            <threshold>0.</threshold>
            <left_val>0.</left_val>
            <right_val>-1.</right_val></_></_>
        <_>
          <!-- tree 180 -->
          <_>
            <!-- root node -->
            <feature>
              <rects>
                <_>
                  0 0 2 4 -1.</_>
                <_>
                  0 0 1 2 2.</_>
                <_>
                  1 2 1 2 2.</_></rects>
              <tilted>0</tilted></feature>
            <threshold>1.9433340639807284e-04</threshold>
            <left_val>-1.</left_val>
            <right_val>1.</right_val></_></_>
        <_>
          <!-- tree 181 -->
          <_>
            <!-- root node -->
            <feature>
              <rects>
                <_>
                  38 0 2 1 -1.</_>
                <_>
                  38 0 1 1 2.</_></rects>
              <tilted>0</tilted></feature>
            <threshold>0.</threshold>
            <left_val>0.</left_val>
            <right_val>-1.</right_val></_></_>
        <_>
          <!-- tree 182 -->
          <_>
            <!-- root node -->
            <feature>
              <rects>
                <_>
                  0 0 1 24 -1.</_>
                <_>
                  0 12 1 12 2.</_></rects>
              <tilted>0</tilted></feature>
            <threshold>-1.2237789633218199e-04</threshold>
            <left_val>1.</left_val>
            <right_val>-1.</right_val></_></_>
        <_>
          <!-- tree 183 -->
          <_>
            <!-- root node -->
            <feature>
              <rects>
                <_>
                  28 1 12 8 -1.</_>
                <_>
                  34 1 6 4 2.</_>
                <_>
                  28 5 6 4 2.</_></rects>
              <tilted>0</tilted></feature>
            <threshold>-1.5683589735999703e-03</threshold>
            <left_val>1.</left_val>
            <right_val>-8.7341272830963135e-01</right_val></_></_>
        <_>
          <!-- tree 184 -->
          <_>
            <!-- root node -->
            <feature>
              <rects>
                <_>
                  0 0 1 2 -1.</_>
                <_>
                  0 1 1 1 2.</_></rects>
              <tilted>0</tilted></feature>
            <threshold>-9.0676519903354347e-05</threshold>
            <left_val>1.</left_val>
            <right_val>-1.</right_val></_></_>
        <_>
          <!-- tree 185 -->
          <_>
            <!-- root node -->
            <feature>
              <rects>
                <_>
                  34 0 6 4 -1.</_>
                <_>
                  37 0 3 2 2.</_>
                <_>
                  34 2 3 2 2.</_></rects>
              <tilted>0</tilted></feature>
            <threshold>7.5848132837563753e-04</threshold>
            <left_val>-8.8125509023666382e-01</left_val>
            <right_val>1.</right_val></_></_>
        <_>
          <!-- tree 186 -->
          <_>
            <!-- root node -->
            <feature>
              <rects>
                <_>
                  6 22 16 8 -1.</_>
                <_>
                  6 26 16 4 2.</_></rects>
              <tilted>0</tilted></feature>
            <threshold>-1.6118109924718738e-03</threshold>
            <left_val>1.</left_val>
            <right_val>-1.</right_val></_></_>
        <_>
          <!-- tree 187 -->
          <_>
            <!-- root node -->
            <feature>
              <rects>
                <_>
                  18 3 18 4 -1.</_>
                <_>
                  24 3 6 4 3.</_></rects>
              <tilted>0</tilted></feature>
            <threshold>-9.5351930940523744e-04</threshold>
            <left_val>1.</left_val>
            <right_val>-9.4481587409973145e-01</right_val></_></_>
        <_>
          <!-- tree 188 -->
          <_>
            <!-- root node -->
            <feature>
              <rects>
                <_>
                  0 11 35 14 -1.</_>
                <_>
                  0 18 35 7 2.</_></rects>
              <tilted>0</tilted></feature>
            <threshold>-1.2944860383868217e-02</threshold>
            <left_val>1.</left_val>
            <right_val>-1.</right_val></_></_>
        <_>
          <!-- tree 189 -->
          <_>
            <!-- root node -->
            <feature>
              <rects>
                <_>
                  18 3 18 4 -1.</_>
                <_>
                  24 3 6 4 3.</_></rects>
              <tilted>0</tilted></feature>
            <threshold>-9.5351930940523744e-04</threshold>
            <left_val>1.</left_val>
            <right_val>-6.8384861946105957e-01</right_val></_></_>
        <_>
          <!-- tree 190 -->
          <_>
            <!-- root node -->
            <feature>
              <rects>
                <_>
                  0 11 25 10 -1.</_>
                <_>
                  0 16 25 5 2.</_></rects>
              <tilted>0</tilted></feature>
            <threshold>-5.1988911582157016e-04</threshold>
            <left_val>1.</left_val>
            <right_val>-1.</right_val></_></_>
        <_>
          <!-- tree 191 -->
          <_>
            <!-- root node -->
            <feature>
              <rects>
                <_>
                  32 18 8 10 -1.</_>
                <_>
                  32 23 8 5 2.</_></rects>
              <tilted>0</tilted></feature>
            <threshold>-1.4675050042569637e-03</threshold>
            <left_val>1.</left_val>
            <right_val>-5.1325428485870361e-01</right_val></_></_>
        <_>
          <!-- tree 192 -->
          <_>
            <!-- root node -->
            <feature>
              <rects>
                <_>
                  0 3 21 7 -1.</_>
                <_>
                  7 3 7 7 3.</_></rects>
              <tilted>0</tilted></feature>
            <threshold>-2.1296900231391191e-03</threshold>
            <left_val>1.</left_val>
            <right_val>-1.0000009536743164e+00</right_val></_></_>
        <_>
          <!-- tree 193 -->
          <_>
            <!-- root node -->
            <feature>
              <rects>
                <_>
                  30 12 10 18 -1.</_>
                <_>
                  30 21 10 9 2.</_></rects>
              <tilted>0</tilted></feature>
            <threshold>-8.1585269072093070e-05</threshold>
            <left_val>1.</left_val>
            <right_val>-3.2093781232833862e-01</right_val></_></_>
        <_>
          <!-- tree 194 -->
          <_>
            <!-- root node -->
            <feature>
              <rects>
                <_>
                  1 18 6 10 -1.</_>
                <_>
                  1 23 6 5 2.</_></rects>
              <tilted>0</tilted></feature>
            <threshold>-6.9389882264658809e-04</threshold>
            <left_val>1.</left_val>
            <right_val>-1.</right_val></_></_>
        <_>
          <!-- tree 195 -->
          <_>
            <!-- root node -->
            <feature>
              <rects>
                <_>
                  29 15 3 6 -1.</_>
                <_>
                  29 17 3 2 3.</_></rects>
              <tilted>0</tilted></feature>
            <threshold>-8.1417447654530406e-04</threshold>
            <left_val>1.</left_val>
            <right_val>-7.5272077322006226e-01</right_val></_></_></trees>
      <stage_threshold>-1.2528479576110840e+01</stage_threshold>
      <parent>3</parent>
      <next>-1</next></_>
    <_>
      <!-- stage 5 -->
      <trees>
        <_>
          <!-- tree 0 -->
          <_>
            <!-- root node -->
            <feature>
              <rects>
                <_>
                  4 12 6 2 -1.</_>
                <_>
                  7 12 3 2 2.</_></rects>
              <tilted>0</tilted></feature>
            <threshold>-3.3932779915630817e-03</threshold>
            <left_val>7.4153131246566772e-01</left_val>
            <right_val>-9.4762152433395386e-01</right_val></_></_>
        <_>
          <!-- tree 1 -->
          <_>
            <!-- root node -->
            <feature>
              <rects>
                <_>
                  14 12 12 1 -1.</_>
                <_>
                  18 12 4 1 3.</_></rects>
              <tilted>0</tilted></feature>
            <threshold>4.9043712206184864e-03</threshold>
            <left_val>-8.7333661317825317e-01</left_val>
            <right_val>6.0745602846145630e-01</right_val></_></_>
        <_>
          <!-- tree 2 -->
          <_>
            <!-- root node -->
            <feature>
              <rects>
                <_>
                  3 28 33 2 -1.</_>
                <_>
                  3 29 33 1 2.</_></rects>
              <tilted>0</tilted></feature>
            <threshold>-1.0791170410811901e-02</threshold>
            <left_val>8.2498562335968018e-01</left_val>
            <right_val>-7.9990971088409424e-01</right_val></_></_>
        <_>
          <!-- tree 3 -->
          <_>
            <!-- root node -->
            <feature>
              <rects>
                <_>
                  24 3 9 13 -1.</_>
                <_>
                  27 3 3 13 3.</_></rects>
              <tilted>0</tilted></feature>
            <threshold>2.1450780332088470e-02</threshold>
            <left_val>-7.8244638442993164e-01</left_val>
            <right_val>7.6370942592620850e-01</right_val></_></_>
        <_>
          <!-- tree 4 -->
          <_>
            <!-- root node -->
            <feature>
              <rects>
                <_>
                  7 3 9 13 -1.</_>
                <_>
                  10 3 3 13 3.</_></rects>
              <tilted>0</tilted></feature>
            <threshold>7.2137089446187019e-03</threshold>
            <left_val>-9.7848451137542725e-01</left_val>
            <right_val>7.7689111232757568e-01</right_val></_></_>
        <_>
          <!-- tree 5 -->
          <_>
            <!-- root node -->
            <feature>
              <rects>
                <_>
                  12 18 19 3 -1.</_>
                <_>
                  12 19 19 1 3.</_></rects>
              <tilted>0</tilted></feature>
            <threshold>1.4851520245429128e-04</threshold>
            <left_val>-9.9174922704696655e-01</left_val>
            <right_val>4.8640578985214233e-01</right_val></_></_>
        <_>
          <!-- tree 6 -->
          <_>
            <!-- root node -->
            <feature>
              <rects>
                <_>
                  17 19 3 5 -1.</_>
                <_>
                  18 19 1 5 3.</_></rects>
              <tilted>0</tilted></feature>
            <threshold>1.5481190057471395e-03</threshold>
            <left_val>-9.9843108654022217e-01</left_val>
            <right_val>1.0001029968261719e+00</right_val></_></_>
        <_>
          <!-- tree 7 -->
          <_>
            <!-- root node -->
            <feature>
              <rects>
                <_>
                  18 7 12 2 -1.</_>
                <_>
                  18 8 12 1 2.</_></rects>
              <tilted>0</tilted></feature>
            <threshold>1.3241129636298865e-05</threshold>
            <left_val>-1.</left_val>
            <right_val>1.</right_val></_></_>
        <_>
          <!-- tree 8 -->
          <_>
            <!-- root node -->
            <feature>
              <rects>
                <_>
                  0 0 2 1 -1.</_>
                <_>
                  1 0 1 1 2.</_></rects>
              <tilted>0</tilted></feature>
            <threshold>0.</threshold>
            <left_val>0.</left_val>
            <right_val>-1.</right_val></_></_>
        <_>
          <!-- tree 9 -->
          <_>
            <!-- root node -->
            <feature>
              <rects>
                <_>
                  10 0 21 20 -1.</_>
                <_>
